data/bohemian_rhapsody.wav 0 0.77552 0.577527 3.56925e-07 -316.227 -0.000407512 0.000366475 -0.000314499 0.000265029 -0.000224216 0.000188688 -0.000149928 0.000104869 -5.3831e-05 -5.2057e-14 5.3831e-05 -0.000104869 0.000149928 -0.000188688 0.000224216 -0.000265029 0.000314499 -0.000366475 0.000407512 
data/bohemian_rhapsody.wav 8.18857 0.777587 0.652568 3.70967e-07 -316.227 -0.000437796 0.00039704 -0.000345162 0.000292429 -0.000248253 0.000206734 -0.000162482 0.000112383 -5.73015e-05 -5.2057e-14 5.73015e-05 -0.000112383 0.000162482 -0.000206734 0.000248253 -0.000292429 0.000345162 -0.00039704 0.000437796 
data/bohemian_rhapsody.wav 16.3772 0.373584 1.12353 0.000257514 -276.908 10.4017 -6.60391 5.55834 0.433692 0.61356 -1.97265 -0.080293 -0.425135 -1.32072 -4.20004e-14 1.32072 0.425135 0.080293 1.97265 -0.61356 -0.433692 -5.55834 6.60391 -10.4017 
data/bohemian_rhapsody.wav 24.5658 0.157397 1.12001 0.000356199 -270.745 28.8679 -1.20333 4.49483 4.63219 2.56979 -0.418698 0.0429034 0.734465 -1.80298 -4.08769e-14 1.80298 -0.734465 -0.0429034 0.418698 -2.56979 -4.63219 -4.49483 1.20333 -28.8679 
data/bohemian_rhapsody.wav 32.7543 0.103002 1.01233 0.000441583 -268.115 37.2181 5.02361 2.20557 3.85453 3.53374 -1.59491 -2.14745 -0.79096 -1.66657 -4.49976e-14 1.66657 0.79096 2.14745 1.59491 -3.53374 -3.85453 -2.20557 -5.02361 -37.2181 
data/bohemian_rhapsody.wav 40.9429 0.093431 1.0775 0.000805843 -253.987 44.3751 -0.341109 1.82944 4.94812 2.23498 -1.24916 -0.646149 -0.716636 -1.90823 -3.63089e-14 1.90823 0.716636 0.646149 1.24916 -2.23498 -4.94812 -1.82944 0.341109 -44.3751 
data/bohemian_rhapsody.wav 49.1315 0.104605 1.13668 0.000709183 -252.977 42.5575 -1.64584 1.6843 3.95019 2.1135 -3.01536 -0.925556 1.30011 -2.77808 -3.89754e-14 2.77808 -1.30011 0.925556 3.01536 -2.1135 -3.95019 -1.6843 1.64584 -42.5575 
data/bohemian_rhapsody.wav 57.3201 0.112582 1.07047 0.000687819 -258.063 35.9784 -1.4559 3.73099 1.40447 1.15503 -0.149591 -1.35545 -1.42323 -1.53195 -3.77475e-14 1.53195 1.42323 1.35545 0.149591 -1.15503 -1.40447 -3.73099 1.4559 -35.9784 
data/bohemian_rhapsody.wav 65.5087 0.134538 1.21718 0.00066086 -261.17 34.2223 -2.00363 3.18077 3.82711 3.23804 -1.68852 -0.932898 0.855081 -1.58226 -4.0479e-14 1.58226 -0.855081 0.932898 1.68852 -3.23804 -3.82711 -3.18077 2.00363 -34.2223 
data/bohemian_rhapsody.wav 73.6973 0.0543664 0.624855 0.000633118 -271.537 40.3656 9.13918 1.7325 3.53421 2.81388 0.848061 0.832803 0.927598 0.263147 -4.44121e-14 -0.263147 -0.927598 -0.832803 -0.848061 -2.81388 -3.53421 -1.7325 -9.13918 -40.3656 
data/bohemian_rhapsody.wav 81.8859 0.0710004 0.909609 0.000776326 -262.921 41.9244 3.86416 0.585981 4.8681 3.49131 -0.344572 1.25055 1.7696 -0.151305 -4.09878e-14 0.151305 -1.7696 -1.25055 0.344572 -3.49131 -4.8681 -0.585981 -3.86416 -41.9244 
data/bohemian_rhapsody.wav 90.0745 0.0802989 1.04704 0.000730289 -266.313 41.5485 7.57302 2.26897 4.14225 3.15075 0.0599446 1.24916 1.13548 -0.23172 -4.31214e-14 0.23172 -1.13548 -1.24916 -0.0599446 -3.15075 -4.14225 -2.26897 -7.57302 -41.5485 
data/bohemian_rhapsody.wav 98.263 0.0968432 1.04431 0.00156091 -238.691 45.2552 -4.20641 3.64357 2.82901 1.43625 1.08661 3.27193 1.53699 -2.44569 -3.15767e-14 2.44569 -1.53699 -3.27193 -1.08661 -1.43625 -2.82901 -3.64357 4.20641 -45.2552 
data/bohemian_rhapsody.wav 106.452 0.148414 1.02868 0.00131916 -232.464 35.6247 -4.98641 6.49773 -0.147819 3.72228 -1.57859 3.20546 2.29738 0.603897 -3.50017e-14 -0.603897 -2.29738 -3.20546 1.57859 -3.72228 0.147819 -6.49773 4.98641 -35.6247 
data/bohemian_rhapsody.wav 114.64 0.103685 0.932063 0.00118943 -248.114 42.7882 -1.68702 2.56762 1.87487 4.84874 1.34562 0.313967 1.64316 -0.512216 -3.86163e-14 0.512216 -1.64316 -0.313967 -1.34562 -4.84874 -1.87487 -2.56762 1.68702 -42.7882 
data/bohemian_rhapsody.wav 122.829 0.108368 1.08264 0.00116285 -243.293 41.8924 -3.52153 6.49605 3.00886 1.29257 -1.88124 0.731756 2.74096 -0.00871288 -3.3243e-14 0.00871288 -2.74096 -0.731756 1.88124 -1.29257 -3.00886 -6.49605 3.52153 -41.8924 
data/bohemian_rhapsody.wav 131.017 0.0573665 1.08713 0.000599779 -276.817 39.0685 11.0967 -0.291282 1.21838 1.36131 -1.05402 -1.63579 -0.284555 0.603462 -4.76642e-14 -0.603462 0.284555 1.63579 1.05402 -1.36131 -1.21838 0.291282 -11.0967 -39.0685 
data/bohemian_rhapsody.wav 139.206 0.0812085 0.775139 0.00111172 -255.336 40.8281 6.16449 7.23126 2.81705 3.74596 0.637805 0.310873 0.952028 1.30755 -4.03089e-14 -1.30755 -0.952028 -0.310873 -0.637805 -3.74596 -2.81705 -7.23126 -6.16449 -40.8281 
data/bohemian_rhapsody.wav 147.395 0.116326 1.09224 0.000755483 -254.868 39.5498 2.89832 2.99666 -1.62431 1.51584 -2.66367 -1.35839 1.32435 -0.730986 -4.40188e-14 0.730986 -1.32435 1.35839 2.66367 -1.51584 1.62431 -2.99666 -2.89832 -39.5498 
data/bohemian_rhapsody.wav 155.583 0.113509 0.953923 0.00121232 -243.836 40.0972 0.145443 6.85246 0.286344 3.11462 0.925673 1.43649 0.892203 -0.780339 -3.77213e-14 0.780339 -0.892203 -1.43649 -0.925673 -3.11462 -0.286344 -6.85246 -0.145443 -40.0972 
data/bohemian_rhapsody.wav 163.772 0.116715 1.07508 0.00156466 -232.948 42.7397 -7.23855 9.48447 1.77654 -0.156491 -0.947959 0.642598 1.75399 -0.459412 -2.77991e-14 0.459412 -1.75399 -0.642598 0.947959 0.156491 -1.77654 -9.48447 7.23855 -42.7397 
data/bohemian_rhapsody.wav 171.96 0.0887508 0.954533 0.00169079 -235.982 45.4716 -1.31517 7.85646 0.871169 2.70862 -1.50794 0.420943 0.231348 -0.936443 -3.51127e-14 0.936443 -0.231348 -0.420943 1.50794 -2.70862 -0.871169 -7.85646 1.31517 -45.4716 
data/bohemian_rhapsody.wav 180.149 0.12483 1.08467 0.00196026 -221.116 42.4239 -11.5883 9.22384 0.658921 2.83462 -1.45921 1.15375 -0.137852 -1.67867 -2.77081e-14 1.67867 0.137852 -1.15375 1.45921 -2.83462 -0.658921 -9.22384 11.5883 -42.4239 
data/bohemian_rhapsody.wav 188.338 0.103079 1.11287 0.00206437 -223.289 47.8672 -8.99829 4.62365 0.0367656 3.1928 -0.20131 1.92392 1.18076 0.589572 -2.84408e-14 -0.589572 -1.18076 -1.92392 0.20131 -3.1928 -0.0367656 -4.62365 8.99829 -47.8672 
data/bohemian_rhapsody.wav 196.526 0.110527 0.9414 0.00165616 -227.928 44.1044 -9.35277 6.85342 1.15839 2.9572 1.90466 2.04394 -0.509316 -1.02248 -2.73884e-14 1.02248 0.509316 -2.04394 -1.90466 -2.9572 -1.15839 -6.85342 9.35277 -44.1044 
data/bohemian_rhapsody.wav 204.715 0.0988556 0.898076 0.00150718 -231.587 47.8384 -11.4279 2.66846 3.0449 0.138117 1.94775 3.68953 0.265529 -1.02162 -2.23948e-14 1.02162 -0.265529 -3.68953 -1.94775 -0.138117 -3.0449 -2.66846 11.4279 -47.8384 
data/bohemian_rhapsody.wav 212.903 0.166454 0.982486 0.00114018 -257.205 26.8621 -2.68007 6.30051 -2.13859 0.713334 0.496541 2.78243 1.55078 0.466933 -3.85945e-14 -0.466933 -1.55078 -2.78243 -0.496541 -0.713334 2.13859 -6.30051 2.68007 -26.8621 
data/bohemian_rhapsody.wav 221.092 0.110454 0.958979 0.00084037 -252.421 38.7433 -3.26932 3.49852 3.76306 1.74707 -2.01905 0.598081 1.92724 -1.07103 -3.60898e-14 1.07103 -1.92724 -0.598081 2.01905 -1.74707 -3.76306 -3.49852 3.26932 -38.7433 
data/bohemian_rhapsody.wav 229.28 0.122639 0.97919 0.00115657 -249.814 36.1821 -11.0115 0.617876 1.46081 -2.20391 -3.50461 -0.666687 -0.967382 -2.00632 -2.98859e-14 2.00632 0.967382 0.666687 3.50461 2.20391 -1.46081 -0.617876 11.0115 -36.1821 
data/bohemian_rhapsody.wav 237.469 0.108543 1.25403 0.0013109 -247.243 39.053 0.965931 5.82107 0.74469 0.563486 -4.17032 1.23801 2.56708 0.189148 -3.84496e-14 -0.189148 -2.56708 -1.23801 4.17032 -0.563486 -0.74469 -5.82107 -0.965931 -39.053 
data/bohemian_rhapsody.wav 245.658 0.103979 1.03868 0.00111234 -247.371 38.5238 -1.3971 5.91326 0.802518 1.52666 -3.40826 -2.12522 -0.183208 -0.6615 -3.79843e-14 0.6615 0.183208 2.12522 3.40826 -1.52666 -0.802518 -5.91326 1.3971 -38.5238 
data/bohemian_rhapsody.wav 253.846 0.123814 0.870611 0.00193002 -225.439 43.6501 -6.11774 7.90246 -0.566083 2.27706 -1.74397 0.48672 0.499613 -1.63711 -3.24083e-14 1.63711 -0.499613 -0.48672 1.74397 -2.27706 0.566083 -7.90246 6.11774 -43.6501 
data/bohemian_rhapsody.wav 262.035 0.112928 1.12178 0.00143938 -237.961 41.4743 -6.90771 1.94524 -1.49004 -0.0178957 -2.95053 1.91969 1.62186 -0.897248 -3.35562e-14 0.897248 -1.62186 -1.91969 2.95053 0.0178957 1.49004 -1.94524 6.90771 -41.4743 
data/bohemian_rhapsody.wav 270.223 0.126157 0.96282 0.0023579 -216.003 41.5899 -11.624 9.12063 -1.9277 -1.62924 -4.12295 2.17064 1.31164 0.240927 -2.43841e-14 -0.240927 -1.31164 -2.17064 4.12295 1.62924 1.9277 -9.12063 11.624 -41.5899 
data/bohemian_rhapsody.wav 278.412 0.0989015 0.804675 0.00345725 -216.572 48.1526 -7.30085 13.5555 2.35559 1.38024 -1.44982 0.292083 -0.536213 -1.35087 -2.48603e-14 1.35087 0.536213 -0.292083 1.44982 -1.38024 -2.35559 -13.5555 7.30085 -48.1526 
data/bohemian_rhapsody.wav 286.601 0.122502 0.935491 0.00287435 -217.626 39.2212 -1.97854 10.0801 2.66989 3.89149 -1.00741 1.23163 -0.211804 0.0906306 -3.05857e-14 -0.0906306 0.211804 -1.23163 1.00741 -3.89149 -2.66989 -10.0801 1.97854 -39.2212 
data/bohemian_rhapsody.wav 294.789 0.14436 0.834435 0.00250955 -214.69 34.9769 -8.76369 11.6986 0.500289 3.19767 0.117721 2.41373 1.57423 1.14023 -2.69205e-14 -1.14023 -1.57423 -2.41373 -0.117721 -3.19767 -0.500289 -11.6986 8.76369 -34.9769 
data/bohemian_rhapsody.wav 302.978 0.130996 0.848179 0.00240159 -215.128 37.9534 -7.46845 7.64133 2.07049 4.01169 -1.21841 1.699 0.151118 -0.283533 -2.87226e-14 0.283533 -0.151118 -1.699 1.21841 -4.01169 -2.07049 -7.64133 7.46845 -37.9534 
data/bohemian_rhapsody.wav 311.166 0.138206 0.84831 0.00241941 -213.629 36.6835 -8.17365 10.1476 2.45852 5.6173 -1.54052 1.03596 -0.487579 -0.787935 -2.97245e-14 0.787935 0.487579 -1.03596 1.54052 -5.6173 -2.45852 -10.1476 8.17365 -36.6835 
data/bohemian_rhapsody.wav 319.355 0.110309 0.805079 0.00227094 -218.253 43.4834 -4.98186 0.650138 0.568032 1.71602 -2.29502 2.58382 0.791124 -0.283111 -3.01597e-14 0.283111 -0.791124 -2.58382 2.29502 -1.71602 -0.568032 -0.650138 4.98186 -43.4834 
data/bohemian_rhapsody.wav 327.544 0.0927291 1.06572 0.00219747 -227.754 51.3015 -8.2066 3.26878 6.25751 1.45544 1.92151 2.65061 -0.161377 -0.280937 -2.14223e-14 0.280937 0.161377 -2.65061 -1.92151 -1.45544 -6.25751 -3.26878 8.2066 -51.3015 
data/bohemian_rhapsody.wav 335.732 0.10724 0.8371 0.00199015 -226.097 48.1944 -6.8569 4.2077 0.92283 -0.242481 -1.16128 1.50701 0.484751 0.996878 -2.55518e-14 -0.996878 -0.484751 -1.50701 1.16128 0.242481 -0.92283 -4.2077 6.8569 -48.1944 
data/bohemian_rhapsody.wav 343.921 0.112251 1.11636 0.002485 -217.822 45.9892 -6.98164 6.71453 -2.94931 -1.71069 -4.53253 0.251968 0.439578 1.00483 -2.73598e-14 -1.00483 -0.439578 -0.251968 4.53253 1.71069 2.94931 -6.71453 6.98164 -45.9892 
data/bohemian_rhapsody.wav 352.109 0.0816866 1.06846 0.000841208 -254.919 45.8425 1.21941 1.34441 2.75326 -1.25217 -1.17869 -0.230265 -1.64331 -1.16874 -3.39158e-14 1.16874 1.64331 0.230265 1.17869 1.25217 -2.75326 -1.34441 -1.21941 -45.8425 
data/bohemian_rhapsody.wav 360.298 0.115554 0.922684 0.000336311 -274.145 32.6666 7.11341 4.05252 2.42763 4.15439 1.01254 -0.550246 -0.0826866 -0.907865 -4.73591e-14 0.907865 0.0826866 0.550246 -1.01254 -4.15439 -2.42763 -4.05252 -7.11341 -32.6666 
data/bohemian_rhapsody.wav 368.486 0.100429 1.11585 0.000350692 -278.725 30.6755 3.30308 1.62541 4.80694 1.41139 -2.02757 0.0222905 0.428581 -2.34597 -4.44528e-14 2.34597 -0.428581 -0.0222905 2.02757 -1.41139 -4.80694 -1.62541 -3.30308 -30.6755 
data/bohemian_rhapsody.wav 376.675 0.0676341 1.10232 0.000413238 -272.893 40.7024 7.60568 -3.14201 1.24445 2.02851 -1.34703 -2.05867 0.12509 1.25634 -4.59599e-14 -1.25634 -0.12509 2.05867 1.34703 -2.02851 -1.24445 3.14201 -7.60568 -40.7024 
data/bohemian_rhapsody.wav 384.864 0.0558374 1.03974 0.000220169 -285.933 33.327 14.6607 2.65015 0.544374 1.03233 -0.248485 -1.30363 -0.57692 0.288628 -5.12132e-14 -0.288628 0.57692 1.30363 0.248485 -1.03233 -0.544374 -2.65015 -14.6607 -33.327 
data/bohemian_rhapsody.wav 393.052 0.111564 1.01017 5.2048e-05 -298.323 17.3182 4.5516 0.406234 1.53276 1.27389 0.746624 1.20662 0.729872 -0.228255 -4.94719e-14 0.228255 -0.729872 -1.20662 -0.746624 -1.27389 -1.53276 -0.406234 -4.5516 -17.3182 
data/bohemian_rhapsody.wav 401.241 0.544374 0.910362 1.95501e-06 -315.752 0.50375 0.162421 -0.082909 -0.109739 0.00978589 0.123033 0.14748 0.0973356 0.0368926 -5.20381e-14 -0.0368926 -0.0973356 -0.14748 -0.123033 -0.00978589 0.109739 0.082909 -0.162421 -0.50375 
