data/bohemian_rhapsody.wav 0 0.776481 0.571851 3.57604e-07 -316.227 -0.000408702 0.000368861 -0.000318801 0.000269403 -0.000227719 0.000191136 -0.00015112 0.000105308 -5.41124e-05 -5.2057e-14 5.41124e-05 -0.000105308 0.00015112 -0.000191136 0.000227719 -0.000269403 0.000318801 -0.000368861 0.000408702 
data/bohemian_rhapsody.wav 4.14483 0.776384 0.653149 3.6548e-07 -316.227 -0.000425085 0.00038379 -0.000332108 0.000280985 -0.000237639 0.00019864 -0.000156989 0.000108759 -5.55368e-05 -5.2057e-14 5.55368e-05 -0.000108759 0.000156989 -0.00019864 0.000237639 -0.000280985 0.000332108 -0.00038379 0.000425085 
data/bohemian_rhapsody.wav 8.28966 0.778588 0.661312 3.66861e-07 -316.227 -0.00042596 0.000385279 -0.00033408 0.000283333 -0.000240598 0.000201484 -0.000159263 0.000110384 -5.65869e-05 -5.2057e-14 5.65869e-05 -0.000110384 0.000159263 -0.000201484 0.000240598 -0.000283333 0.00033408 -0.000385279 0.00042596 
data/bohemian_rhapsody.wav 12.4345 0.775154 0.671194 3.54814e-07 -316.227 -0.000396564 0.000355643 -0.000305133 0.000256282 -0.000217485 0.000183644 -0.000146717 0.000102588 -5.30649e-05 -5.2057e-14 5.30649e-05 -0.000102588 0.000146717 -0.000183644 0.000217485 -0.000256282 0.000305133 -0.000355643 0.000396564 
data/bohemian_rhapsody.wav 16.5793 0.320141 1.05561 0.000304118 -284.907 20.7161 0.669797 2.17645 0.267777 0.650161 -0.40829 -1.32536 -0.549933 -1.36881 -4.62223e-14 1.36881 0.549933 1.32536 0.40829 -0.650161 -0.267777 -2.17645 -0.669797 -20.7161 
data/bohemian_rhapsody.wav 20.7242 0.200483 1.02069 0.00023291 -273.302 23.2081 1.34381 7.32701 2.79056 4.57457 -0.509508 -3.23704 -2.03899 -1.86358 -4.61064e-14 1.86358 2.03899 3.23704 0.509508 -4.57457 -2.79056 -7.32701 -1.34381 -23.2081 
data/bohemian_rhapsody.wav 24.869 0.141307 0.918423 0.000611377 -265.708 33.7402 -1.33695 -2.17799 -3.23076 -1.7779 -3.76562 -1.44656 0.903792 -1.81548 -4.37691e-14 1.81548 -0.903792 1.44656 3.76562 1.7779 3.23076 2.17799 1.33695 -33.7402 
data/bohemian_rhapsody.wav 29.0139 0.0934104 1.17568 0.000689913 -261.319 41.316 -0.167814 -3.24016 1.62978 1.9019 -2.02809 -0.634692 0.795737 -2.09473 -4.22218e-14 2.09473 -0.795737 0.634692 2.02809 -1.9019 -1.62978 3.24016 0.167814 -41.316 
data/bohemian_rhapsody.wav 33.1587 0.119617 0.91852 0.000643649 -265.165 36.6367 3.41802 2.01538 2.14686 3.09532 -1.14664 -1.12194 -0.601016 -2.03177 -4.44887e-14 2.03177 0.601016 1.12194 1.14664 -3.09532 -2.14686 -2.01538 -3.41802 -36.6367 
data/bohemian_rhapsody.wav 37.3036 0.109052 1.01942 0.000735147 -249.788 42.1674 -4.76812 -1.87898 1.49519 1.30978 -3.21934 0.130735 -0.121211 -2.88577 -3.74626e-14 2.88577 0.121211 -0.130735 3.21934 -1.30978 -1.49519 1.87898 4.76812 -42.1674 
data/bohemian_rhapsody.wav 41.4484 0.0849912 0.752035 0.00066445 -261.08 44.4092 2.82661 2.02956 9.17923 3.83943 -3.31059 -4.09408 -2.0226 -1.06159 -3.81542e-14 1.06159 2.0226 4.09408 3.31059 -3.83943 -9.17923 -2.02956 -2.82661 -44.4092 
data/bohemian_rhapsody.wav 45.5932 0.114149 0.914007 0.000777467 -246.751 43.108 -4.4498 0.91877 0.320745 -0.310157 -1.70695 3.60585 4.41505 -2.64126 -3.63733e-14 2.64126 -4.41505 -3.60585 1.70695 0.310157 -0.320745 -0.91877 4.4498 -43.108 
data/bohemian_rhapsody.wav 49.7381 0.141072 1.20367 0.000650729 -254.561 36.6024 -1.54906 5.25105 3.04742 4.35467 -0.492114 -2.93932 -1.42535 -2.34202 -4.02396e-14 2.34202 1.42535 2.93932 0.492114 -4.35467 -3.04742 -5.25105 1.54906 -36.6024 
data/bohemian_rhapsody.wav 53.8829 0.108762 1.03086 0.000729343 -257.209 39.7095 0.242117 0.38545 -0.945141 0.647184 -2.84335 -2.02266 0.181498 -1.04869 -4.17262e-14 1.04869 -0.181498 2.02266 2.84335 -0.647184 0.945141 -0.38545 -0.242117 -39.7095 
data/bohemian_rhapsody.wav 58.0278 0.100429 1.05065 0.000512845 -261.41 37.2448 -0.0504174 0.41769 1.22453 1.91629 -2.71625 -1.30974 0.690315 -1.37098 -4.25151e-14 1.37098 -0.690315 1.30974 2.71625 -1.91629 -1.22453 -0.41769 0.0504174 -37.2448 
data/bohemian_rhapsody.wav 62.1726 0.131071 1.09973 0.00104244 -236.483 39.8146 -6.45704 6.92046 -1.02782 0.709018 -1.7068 -1.76929 -0.85809 -1.7602 -3.32782e-14 1.7602 0.85809 1.76929 1.7068 -0.709018 1.02782 -6.92046 6.45704 -39.8146 
data/bohemian_rhapsody.wav 66.3174 0.105159 0.810481 0.000328175 -270.999 35.3122 2.47727 1.57384 5.10464 2.82009 -0.627627 -0.965995 0.204567 0.125925 -4.10133e-14 -0.125925 -0.204567 0.965995 0.627627 -2.82009 -5.10464 -1.57384 -2.47727 -35.3122 
data/bohemian_rhapsody.wav 70.4623 0.0659653 0.881996 0.000725891 -267.698 41.4244 6.98415 2.79929 5.10367 2.03622 0.90501 1.36566 0.76051 0.761199 -3.96113e-14 -0.761199 -0.76051 -1.36566 -0.90501 -2.03622 -5.10367 -2.79929 -6.98415 -41.4244 
data/bohemian_rhapsody.wav 74.6071 0.0427701 0.524516 0.000836214 -270.986 43.2123 10.2272 0.161315 4.68232 5.19232 2.32346 0.989574 0.625559 0.368703 -4.54853e-14 -0.368703 -0.625559 -0.989574 -2.32346 -5.19232 -4.68232 -0.161315 -10.2272 -43.2123 
data/bohemian_rhapsody.wav 78.752 0.0794153 0.760886 0.000963439 -254.906 43.1301 2.06959 2.39108 3.0991 4.28403 0.554352 0.828378 1.38177 -0.891518 -4.0593e-14 0.891518 -1.38177 -0.828378 -0.554352 -4.28403 -3.0991 -2.39108 -2.06959 -43.1301 
data/bohemian_rhapsody.wav 82.8968 0.0914947 0.936254 0.000709515 -258.673 41.4262 1.65109 0.863854 4.76149 3.94227 -1.73712 1.07895 1.45419 -1.69413 -4.14114e-14 1.69413 -1.45419 -1.07895 1.73712 -3.94227 -4.76149 -0.863854 -1.65109 -41.4262 
data/bohemian_rhapsody.wav 87.0417 0.0848332 0.386348 0.000937897 -262.341 40.7786 4.53584 3.54014 4.13745 4.73965 1.2861 0.744687 3.17936 0.64954 -4.24134e-14 -0.64954 -3.17936 -0.744687 -1.2861 -4.73965 -4.13745 -3.54014 -4.53584 -40.7786 
data/bohemian_rhapsody.wav 91.1865 0.0631857 1.05288 0.00102636 -261.162 45.6163 5.28634 1.99062 6.68982 2.61466 -0.180564 3.26845 3.18172 -0.908825 -3.91798e-14 0.908825 -3.18172 -3.26845 0.180564 -2.61466 -6.68982 -1.99062 -5.28634 -45.6163 
data/bohemian_rhapsody.wav 95.3313 0.0693052 0.858218 0.000974127 -257.391 45.4582 1.53726 -0.0557282 4.99769 2.70766 0.224718 1.32896 0.362917 -2.26136 -3.81228e-14 2.26136 -0.362917 -1.32896 -0.224718 -2.70766 -4.99769 0.0557282 -1.53726 -45.4582 
data/bohemian_rhapsody.wav 99.4762 0.0762886 0.962371 0.000810462 -256.275 44.383 1.51979 -0.255307 3.01012 0.808903 -1.67923 0.473 1.07987 -0.0848796 -3.73803e-14 0.0848796 -1.07987 -0.473 1.67923 -0.808903 -3.01012 0.255307 -1.51979 -44.383 
data/bohemian_rhapsody.wav 103.621 0.151154 0.946325 0.00150907 -226.637 34.1659 -6.08305 8.72526 2.73259 2.14509 -0.942066 1.12277 1.13193 -0.259129 -2.96868e-14 0.259129 -1.13193 -1.12277 0.942066 -2.14509 -2.73259 -8.72526 6.08305 -34.1659 
data/bohemian_rhapsody.wav 107.766 0.126277 0.924142 0.0015001 -229.402 39.1758 -8.03152 9.07569 -0.956933 0.940634 -1.16076 4.76813 4.25465 -0.0532068 -3.05958e-14 0.0532068 -4.25465 -4.76813 1.16076 -0.940634 0.956933 -9.07569 8.03152 -39.1758 
data/bohemian_rhapsody.wav 111.911 0.135537 0.99194 0.00150121 -232.224 37.4142 -5.35161 8.65531 -2.89983 4.67517 -0.560076 3.72335 3.46982 1.39908 -3.68047e-14 -1.39908 -3.46982 -3.72335 0.560076 -4.67517 2.89983 -8.65531 5.35161 -37.4142 
data/bohemian_rhapsody.wav 116.056 0.111278 1.05427 0.00149336 -234.773 43.4317 -8.62037 5.19546 3.68894 2.32305 0.404863 3.10511 2.65682 -1.073 -2.87081e-14 1.073 -2.65682 -3.10511 -0.404863 -2.32305 -3.68894 -5.19546 8.62037 -43.4317 
data/bohemian_rhapsody.wav 120.2 0.110232 0.738037 0.00208803 -227.811 42.9816 -7.58681 8.68883 2.37042 4.07894 0.868961 1.83704 1.28625 0.260283 -2.89828e-14 -0.260283 -1.28625 -1.83704 -0.868961 -4.07894 -2.37042 -8.68883 7.58681 -42.9816 
data/bohemian_rhapsody.wav 124.345 0.12643 0.857504 0.00106693 -243.937 39.3789 -1.70756 8.39922 0.388378 2.31592 -0.663627 0.066369 3.12864 0.281614 -3.71283e-14 -0.281614 -3.12864 -0.066369 0.663627 -2.31592 -0.388378 -8.39922 1.70756 -39.3789 
data/bohemian_rhapsody.wav 128.49 0.0846146 1.0347 0.000370563 -275.475 34.5294 7.69612 4.08568 3.31272 2.34642 0.840413 0.133571 0.682675 -0.346945 -4.48779e-14 0.346945 -0.682675 -0.133571 -0.840413 -2.34642 -3.31272 -4.08568 -7.69612 -34.5294 
data/bohemian_rhapsody.wav 132.635 0.0652867 0.943205 0.000453126 -281.096 34.1261 7.87808 -1.77069 1.84139 2.05802 -2.12588 -2.87063 -0.323589 0.942733 -4.82431e-14 -0.942733 0.323589 2.87063 2.12588 -2.05802 -1.84139 1.77069 -7.87808 -34.1261 
data/bohemian_rhapsody.wav 136.78 0.040075 0.451349 0.000936721 -269.958 43.803 10.1882 0.971383 5.79527 5.51044 1.88486 0.269381 0.0816971 0.169247 -4.48541e-14 -0.169247 -0.0816971 -0.269381 -1.88486 -5.51044 -5.79527 -0.971383 -10.1882 -43.803 
data/bohemian_rhapsody.wav 140.925 0.0821339 0.8227 0.000909407 -255.247 42.0434 2.49672 4.27313 2.21514 0.232203 -1.6109 0.541702 0.584291 -0.486728 -3.74076e-14 0.486728 -0.584291 -0.541702 1.6109 -0.232203 -2.21514 -4.27313 -2.49672 -42.0434 
data/bohemian_rhapsody.wav 145.069 0.116852 0.908109 0.000841212 -254.418 38.7191 2.29281 3.7182 -1.07308 1.65487 -0.761233 0.108511 1.80556 0.423838 -4.1406e-14 -0.423838 -1.80556 -0.108511 0.761233 -1.65487 1.07308 -3.7182 -2.29281 -38.7191 
data/bohemian_rhapsody.wav 149.214 0.12326 0.979288 0.00116952 -246.284 38.3665 -1.43815 6.53919 0.203693 1.93195 -0.0281307 0.768713 2.58968 -0.818257 -3.78589e-14 0.818257 -2.58968 -0.768713 0.0281307 -1.93195 -0.203693 -6.53919 1.43815 -38.3665 
data/bohemian_rhapsody.wav 153.359 0.112846 0.920173 0.000983941 -246.149 40.503 -2.3727 5.73972 1.43885 2.36372 -0.359126 1.52089 2.23107 -0.719229 -3.63602e-14 0.719229 -2.23107 -1.52089 0.359126 -2.36372 -1.43885 -5.73972 2.3727 -40.503 
data/bohemian_rhapsody.wav 157.504 0.134177 0.882807 0.00118743 -241.536 35.9014 -2.08763 6.41347 -1.52794 4.38906 -0.55091 2.49296 0.951152 -0.402324 -3.96365e-14 0.402324 -0.951152 -2.49296 0.55091 -4.38906 1.52794 -6.41347 2.08763 -35.9014 
data/bohemian_rhapsody.wav 161.649 0.113785 0.952717 0.00124256 -248.516 38.3622 1.43811 7.3776 1.00334 2.8762 0.211674 0.230516 1.1208 0.202351 -3.85358e-14 -0.202351 -1.1208 -0.230516 -0.211674 -2.8762 -1.00334 -7.3776 -1.43811 -38.3622 
data/bohemian_rhapsody.wav 165.794 0.124224 0.969965 0.00199512 -224.683 41.7351 -9.20315 9.75278 0.923566 1.39175 1.3248 0.869185 1.18772 -0.728239 -2.65793e-14 0.728239 -1.18772 -0.869185 -1.3248 -1.39175 -0.923566 -9.75278 9.20315 -41.7351 
data/bohemian_rhapsody.wav 169.938 0.0930741 0.954358 0.00155687 -237.389 44.8314 -2.13907 7.2026 2.19801 1.77324 -1.76169 0.896696 1.25636 -0.383083 -3.31196e-14 0.383083 -1.25636 -0.896696 1.76169 -1.77324 -2.19801 -7.2026 2.13907 -44.8314 
data/bohemian_rhapsody.wav 174.083 0.108058 0.866548 0.00173313 -228.541 43.1614 -3.19607 9.29518 -1.07215 3.38288 -3.27441 0.311356 0.838154 0.0698834 -3.55826e-14 -0.0698834 -0.838154 -0.311356 3.27441 -3.38288 1.07215 -9.29518 3.19607 -43.1614 
data/bohemian_rhapsody.wav 178.228 0.0952518 0.91492 0.00139701 -241.064 45.0401 0.80136 6.58119 -1.45729 0.340579 -0.857142 0.523203 0.492446 -1.0758 -3.64998e-14 1.0758 -0.492446 -0.523203 0.857142 -0.340579 1.45729 -6.58119 -0.80136 -45.0401 
data/bohemian_rhapsody.wav 182.373 0.139798 0.823266 0.00208377 -221.836 37.532 -4.17786 13.3262 -0.283707 2.63564 0.813577 1.13592 -0.15306 -0.257209 -3.02586e-14 0.257209 0.15306 -1.13592 -0.813577 -2.63564 0.283707 -13.3262 4.17786 -37.532 
data/bohemian_rhapsody.wav 186.518 0.108124 0.892174 0.0024639 -217.134 46.9542 -10.6599 7.51626 0.143695 2.15064 -2.26206 1.99943 1.48763 -0.356908 -2.68705e-14 0.356908 -1.48763 -1.99943 2.26206 -2.15064 -0.143695 -7.51626 10.6599 -46.9542 
data/bohemian_rhapsody.wav 190.663 0.0917071 0.831963 0.00159066 -232.247 49.6812 -11.6257 1.9892 4.32358 -1.78127 -0.323304 3.26252 2.61429 3.27317 -1.82501e-14 -3.27317 -2.61429 -3.26252 0.323304 1.78127 -4.32358 -1.9892 11.6257 -49.6812 
data/bohemian_rhapsody.wav 194.808 0.11284 1.04279 0.0014116 -229.96 44.0452 -14.0127 4.78696 2.92037 2.7071 1.47628 -0.503726 -1.10362 -0.314802 -2.38424e-14 0.314802 1.10362 0.503726 -1.47628 -2.7071 -2.92037 -4.78696 14.0127 -44.0452 
data/bohemian_rhapsody.wav 198.952 0.0881312 0.960976 0.00198064 -231.422 49.771 -7.65193 6.32393 3.57482 0.440145 2.26994 2.51606 0.535602 -0.751409 -2.37012e-14 0.751409 -0.535602 -2.51606 -2.26994 -0.440145 -3.57482 -6.32393 7.65193 -49.771 
data/bohemian_rhapsody.wav 203.097 0.0957455 0.866475 0.00158751 -234.038 46.3726 -12.2545 2.05589 6.9329 4.5871 2.09405 1.07639 -1.1886 -1.12182 -2.43438e-14 1.12182 1.1886 -1.07639 -2.09405 -4.5871 -6.9329 -2.05589 12.2545 -46.3726 
data/bohemian_rhapsody.wav 207.242 0.103699 1.00753 0.00146173 -232.403 46.0147 -10.1896 4.11755 2.07535 0.078162 0.781945 1.89806 0.234775 -0.0167617 -2.41478e-14 0.0167617 -0.234775 -1.89806 -0.781945 -0.078162 -2.07535 -4.11755 10.1896 -46.0147 
data/bohemian_rhapsody.wav 211.387 0.126518 1.06298 0.00166247 -222.796 42.6565 -11.1787 7.94479 -2.58183 -0.472295 -1.05456 0.883394 0.0822349 -0.880757 -2.66743e-14 0.880757 -0.0822349 -0.883394 1.05456 0.472295 2.58183 -7.94479 11.1787 -42.6565 
data/bohemian_rhapsody.wav 215.532 0.165338 0.854992 0.00120574 -252.208 24.8811 -2.45166 6.84428 -2.46139 1.28165 0.253356 1.5183 1.63441 1.55171 -3.85844e-14 -1.55171 -1.63441 -1.5183 -0.253356 -1.28165 2.46139 -6.84428 2.45166 -24.8811 
data/bohemian_rhapsody.wav 219.677 0.109001 1.00071 0.000418971 -265.394 36.4138 0.61264 1.52014 1.19604 -3.29312 -5.31498 0.76687 3.87976 -0.534796 -3.95624e-14 0.534796 -3.87976 -0.76687 5.31498 3.29312 -1.19604 -1.52014 -0.61264 -36.4138 
data/bohemian_rhapsody.wav 223.821 0.157701 1.13508 0.000615615 -252.778 30.7153 -3.78293 5.23289 -0.525538 -0.852935 -4.5429 0.792384 3.62912 0.440498 -3.79985e-14 -0.440498 -3.62912 -0.792384 4.5429 0.852935 0.525538 -5.23289 3.78293 -30.7153 
data/bohemian_rhapsody.wav 227.966 0.119454 0.944438 0.00202609 -228.105 40.3419 -13.1328 7.86481 3.71614 1.38019 -3.17443 1.39942 1.19263 -1.06652 -2.5468e-14 1.06652 -1.19263 -1.39942 3.17443 -1.38019 -3.71614 -7.86481 13.1328 -40.3419 
data/bohemian_rhapsody.wav 232.111 0.11832 1.04754 0.000870808 -250.087 40.057 -13.3763 -3.0734 4.90107 -2.46236 -5.93362 -0.46263 0.975982 -2.75429 -2.84065e-14 2.75429 -0.975982 0.46263 5.93362 2.46236 -4.90107 3.0734 13.3763 -40.057 
data/bohemian_rhapsody.wav 236.256 0.122254 1.0689 0.00114304 -241.978 39.8854 -2.67351 1.8396 -3.11238 -2.75413 -8.13258 1.54532 3.28901 -1.94961 -3.92769e-14 1.94961 -3.28901 -1.54532 8.13258 2.75413 3.11238 -1.8396 2.67351 -39.8854 
data/bohemian_rhapsody.wav 240.401 0.0955187 1.0486 0.000852981 -255.491 39.7148 0.924284 4.48923 3.82658 4.05306 -0.929488 -1.31401 -0.256914 -0.449189 -3.94355e-14 0.449189 0.256914 1.31401 0.929488 -4.05306 -3.82658 -4.48923 -0.924284 -39.7148 
data/bohemian_rhapsody.wav 244.546 0.126104 0.899743 0.00163702 -226.993 40.3566 -7.32469 11.1568 2.32799 3.57563 -3.04289 0.199828 -0.026001 -1.92241 -3.17464e-14 1.92241 0.026001 -0.199828 3.04289 -3.57563 -2.32799 -11.1568 7.32469 -40.3566 
data/bohemian_rhapsody.wav 248.69 0.0993288 1.13283 0.000227791 -278.852 33.2621 6.21123 -0.586733 0.704366 -1.10884 -3.69416 -2.01847 0.291149 0.207385 -4.57691e-14 -0.207385 -0.291149 2.01847 3.69416 1.10884 -0.704366 0.586733 -6.21123 -33.2621 
data/bohemian_rhapsody.wav 252.835 0.135436 1.09374 0.00156673 -243.686 34.7096 -4.832 8.56679 2.05461 2.18054 -1.45741 0.0947597 0.101875 -0.563398 -3.39061e-14 0.563398 -0.101875 -0.0947597 1.45741 -2.18054 -2.05461 -8.56679 4.832 -34.7096 
data/bohemian_rhapsody.wav 256.98 0.130153 0.985827 0.00150859 -230.126 40.7059 -4.36539 8.65776 -3.28138 0.287359 -2.43628 0.853074 -1.16693 -1.71055 -3.37541e-14 1.71055 1.16693 -0.853074 2.43628 -0.287359 3.28138 -8.65776 4.36539 -40.7059 
data/bohemian_rhapsody.wav 261.125 0.101745 0.961933 0.00188794 -226.738 46.1987 -5.98581 5.68658 0.388931 1.64296 -2.50922 1.05971 0.545133 -1.08768 -3.10497e-14 1.08768 -0.545133 -1.05971 2.50922 -1.64296 -0.388931 -5.68658 5.98581 -46.1987 
data/bohemian_rhapsody.wav 265.27 0.134021 0.997527 0.00136377 -230.835 36.8038 -9.41577 5.5849 -2.25982 -1.27175 -5.44312 1.18177 0.58875 -1.67435 -3.1756e-14 1.67435 -0.58875 -1.18177 5.44312 1.27175 2.25982 -5.5849 9.41577 -36.8038 
data/bohemian_rhapsody.wav 269.415 0.115277 1.00262 0.00189881 -224.824 42.3103 -7.90688 5.72419 -1.43808 -1.24134 -3.8817 1.56135 0.853337 0.567575 -2.78356e-14 -0.567575 -0.853337 -1.56135 3.8817 1.24134 1.43808 -5.72419 7.90688 -42.3103 
data/bohemian_rhapsody.wav 273.559 0.13782 1.09669 0.00190802 -230.526 36.144 -10.8805 10.3841 5.39406 3.59575 -2.85718 1.58002 0.654584 -1.67857 -2.83598e-14 1.67857 -0.654584 -1.58002 2.85718 -3.59575 -5.39406 -10.3841 10.8805 -36.144 
data/bohemian_rhapsody.wav 277.704 0.17681 0.896562 0.00210227 -219.858 31.0022 -2.7006 14.5576 -0.78135 4.81416 -0.276095 1.02244 -0.728549 -0.922926 -3.48821e-14 0.922926 0.728549 -1.02244 0.276095 -4.81416 0.78135 -14.5576 2.7006 -31.0022 
data/bohemian_rhapsody.wav 281.849 0.0968187 0.541097 0.00335435 -221.038 46.6298 -4.7585 13.2793 3.68911 3.05011 -0.95845 0.902779 -0.17249 -0.181312 -2.68648e-14 0.181312 0.17249 -0.902779 0.95845 -3.05011 -3.68911 -13.2793 4.7585 -46.6298 
data/bohemian_rhapsody.wav 285.994 0.110659 0.877351 0.00238096 -222.267 43.0309 -7.50501 9.93182 4.30804 2.81774 -1.24745 1.37591 0.767869 -0.111549 -2.61922e-14 0.111549 -0.767869 -1.37591 1.24745 -2.81774 -4.30804 -9.93182 7.50501 -43.0309 
data/bohemian_rhapsody.wav 290.139 0.125655 0.925957 0.00215558 -221.86 39.0037 -6.70099 9.08792 4.11888 3.31293 -2.81336 1.56238 0.766052 0.315808 -2.82096e-14 -0.315808 -0.766052 -1.56238 2.81336 -3.31293 -4.11888 -9.08792 6.70099 -39.0037 
data/bohemian_rhapsody.wav 294.284 0.154536 0.780535 0.00246773 -214.1 32.5013 -3.58068 9.11937 4.19179 7.13907 -0.206513 0.815053 -0.466213 -0.744517 -3.26831e-14 0.744517 0.466213 -0.815053 0.206513 -7.13907 -4.19179 -9.11937 3.58068 -32.5013 
data/bohemian_rhapsody.wav 298.429 0.138266 0.974506 0.00233075 -215.328 37.6392 -7.3712 8.03219 1.70099 3.65151 -1.97742 1.42569 0.669031 0.26662 -2.89649e-14 -0.26662 -0.669031 -1.42569 1.97742 -3.65151 -1.70099 -8.03219 7.3712 -37.6392 
data/bohemian_rhapsody.wav 302.573 0.116348 0.939541 0.00251813 -219.02 41.9844 -9.06249 6.47155 5.70822 6.20105 -0.962382 1.59289 0.0150394 -2.1837 -2.90153e-14 2.1837 -0.0150394 -1.59289 0.962382 -6.20105 -5.70822 -6.47155 9.06249 -41.9844 
data/bohemian_rhapsody.wav 306.718 0.135308 0.889187 0.00217957 -215.182 38.5487 -9.8784 8.63678 0.572953 3.15855 -2.52956 0.160173 1.82596 -0.269558 -2.93544e-14 0.269558 -1.82596 -0.160173 2.52956 -3.15855 -0.572953 -8.63678 9.8784 -38.5487 
data/bohemian_rhapsody.wav 310.863 0.14165 0.899699 0.00228808 -213.206 37.75 -12.1529 10.8579 0.544178 3.35135 -1.56407 0.305001 -0.193359 -0.484824 -2.64151e-14 0.484824 0.193359 -0.305001 1.56407 -3.35135 -0.544178 -10.8579 12.1529 -37.75 
data/bohemian_rhapsody.wav 315.008 0.137352 0.898177 0.00250583 -210.09 37.471 -7.32579 8.12534 -0.723845 3.69589 -0.376962 2.13783 0.969352 0.773914 -2.88943e-14 -0.773914 -0.969352 -2.13783 0.376962 -3.69589 0.723845 -8.12534 7.32579 -37.471 
data/bohemian_rhapsody.wav 319.153 0.0922332 0.845092 0.00235866 -224.09 48.6061 -6.36567 3.24087 2.05508 1.99522 -0.90286 1.99818 1.07131 -0.586788 -2.84116e-14 0.586788 -1.07131 -1.99818 0.90286 -1.99522 -2.05508 -3.24087 6.36567 -48.6061 
data/bohemian_rhapsody.wav 323.298 0.102089 0.953634 0.0026587 -220.16 45.4387 -4.16462 4.88999 1.04243 2.98585 0.79981 2.72827 0.106986 0.129192 -2.89284e-14 -0.129192 -0.106986 -2.72827 -0.79981 -2.98585 -1.04243 -4.88999 4.16462 -45.4387 
data/bohemian_rhapsody.wav 327.442 0.111955 0.985656 0.00251762 -219.4 47.0023 -8.44628 7.36935 3.20706 2.08008 1.38918 1.41359 0.250753 -1.00694 -2.43076e-14 1.00694 -0.250753 -1.41359 -1.38918 -2.08008 -3.20706 -7.36935 8.44628 -47.0023 
data/bohemian_rhapsody.wav 331.587 0.0851299 0.818054 0.00212692 -230.245 54.2319 -10.9937 1.79211 6.80026 0.544221 1.91414 2.56369 0.200594 -0.541558 -1.91631e-14 0.541558 -0.200594 -2.56369 -1.91414 -0.544221 -6.80026 -1.79211 10.9937 -54.2319 
data/bohemian_rhapsody.wav 335.732 0.0857973 0.719096 0.00230215 -228.761 51.9747 -6.29832 4.368 4.85364 0.239729 0.869009 1.52162 -1.05193 0.34917 -2.20025e-14 -0.34917 1.05193 -1.52162 -0.869009 -0.239729 -4.85364 -4.368 6.29832 -51.9747 
data/bohemian_rhapsody.wav 339.877 0.129565 0.906373 0.00228579 -215.854 42.6217 -5.85054 8.20776 -3.51327 0.352173 -3.99224 1.96605 1.6545 0.753904 -3.0667e-14 -0.753904 -1.6545 -1.96605 3.99224 -0.352173 3.51327 -8.20776 5.85054 -42.6217 
data/bohemian_rhapsody.wav 344.022 0.136863 0.933372 0.00242443 -210.009 39.0827 -7.99051 6.22906 -4.1096 0.766336 -4.62348 0.128597 -0.259431 0.624956 -3.00327e-14 -0.624956 0.259431 -0.128597 4.62348 -0.766336 4.1096 -6.22906 7.99051 -39.0827 
data/bohemian_rhapsody.wav 348.167 0.0947435 0.990301 0.00220242 -223.8 49.6344 -8.53895 4.5733 -0.564629 -2.45583 -3.29785 1.52341 1.12657 0.723428 -2.4337e-14 -0.723428 -1.12657 -1.52341 3.29785 2.45583 0.564629 -4.5733 8.53895 -49.6344 
data/bohemian_rhapsody.wav 352.311 0.0642234 1.01584 0.000977818 -254.25 49.3659 2.9187 0.731433 2.81021 -2.04538 -0.779515 0.145951 -1.86653 -1.86543 -3.36168e-14 1.86543 1.86653 -0.145951 0.779515 2.04538 -2.81021 -0.731433 -2.9187 -49.3659 
data/bohemian_rhapsody.wav 356.456 0.0768662 0.892981 0.000523188 -267.691 39.9811 5.72162 2.89864 4.69056 2.18561 -0.264318 -0.904584 -1.21093 -2.17957 -4.19813e-14 2.17957 1.21093 0.904584 0.264318 -2.18561 -4.69056 -2.89864 -5.72162 -39.9811 
data/bohemian_rhapsody.wav 360.601 0.0774242 1.00131 0.000573745 -267.372 38.7433 5.14329 5.04918 5.13551 1.63015 0.840343 -0.0968156 -0.128713 0.18289 -3.85149e-14 -0.18289 0.128713 0.0968156 -0.840343 -1.63015 -5.13551 -5.04918 -5.14329 -38.7433 
data/bohemian_rhapsody.wav 364.746 0.101701 0.892029 0.000237791 -280.935 30.4634 10.1086 4.23464 1.83594 1.8846 0.129875 -0.727908 -0.422982 0.150687 -4.78153e-14 -0.150687 0.422982 0.727908 -0.129875 -1.8846 -1.83594 -4.23464 -10.1086 -30.4634 
data/bohemian_rhapsody.wav 368.891 0.116945 1.01061 0.000312116 -269.894 33.8157 0.696556 2.21442 4.11474 1.18697 -1.45307 -1.35458 -1.28937 -2.16317 -4.04462e-14 2.16317 1.28937 1.35458 1.45307 -1.18697 -4.11474 -2.21442 -0.696556 -33.8157 
data/bohemian_rhapsody.wav 373.036 0.111177 0.893375 0.000310887 -266.118 35.7874 -4.8431 -1.13154 8.25123 3.27673 -3.14036 -1.03804 0.724672 -2.37297 -3.79939e-14 2.37297 -0.724672 1.03804 3.14036 -3.27673 -8.25123 1.13154 4.8431 -35.7874 
data/bohemian_rhapsody.wav 377.18 0.0748432 1.09111 0.000389138 -266.992 40.3991 0.209466 -4.97371 1.32262 0.145528 -1.23014 -0.557537 0.431347 0.908906 -3.91118e-14 -0.908906 -0.431347 0.557537 1.23014 -0.145528 -1.32262 4.97371 -0.209466 -40.3991 
data/bohemian_rhapsody.wav 381.325 0.0584315 1.03112 0.000338047 -274.921 39.5414 8.29147 -2.03082 3.13465 3.67878 -0.813513 -1.79248 0.244152 0.982494 -4.69312e-14 -0.982494 -0.244152 1.79248 0.813513 -3.67878 -3.13465 2.03082 -8.29147 -39.5414 
data/bohemian_rhapsody.wav 385.47 0.0542469 1.00862 0.000289484 -284.621 34.14 14.4807 3.18567 1.35411 0.938652 -0.0147611 0.507838 1.41764 1.08265 -4.98342e-14 -1.08265 -1.41764 -0.507838 0.0147611 -0.938652 -1.35411 -3.18567 -14.4807 -34.14 
data/bohemian_rhapsody.wav 389.615 0.0647944 1.0324 0.000130373 -291.345 27.8505 13.3273 3.4475 1.0234 1.08264 -0.0414704 -1.14857 -0.817848 -0.0829154 -5.16505e-14 0.0829154 0.817848 1.14857 0.0414704 -1.08264 -1.0234 -3.4475 -13.3273 -27.8505 
data/bohemian_rhapsody.wav 393.76 0.0839418 0.973407 8.78404e-05 -293.014 23.8889 8.62793 1.33598 0.346566 0.044218 0.18772 0.728558 0.261349 -0.42494 -4.97699e-14 0.42494 -0.261349 -0.728558 -0.18772 -0.044218 -0.346566 -1.33598 -8.62793 -23.8889 
data/bohemian_rhapsody.wav 397.905 0.129228 0.659516 2.70527e-05 -304.839 10.6243 1.72252 -0.887553 1.11022 2.0253 1.46986 1.02616 0.28968 -0.380864 -5.07452e-14 0.380864 -0.28968 -1.02616 -1.46986 -2.0253 -1.11022 0.887553 -1.72252 -10.6243 
data/bohemian_rhapsody.wav 402.05 0.566898 0.807541 1.22606e-06 -316.085 0.150666 0.0552887 -0.00721558 -0.00220186 0.0399117 0.063768 0.0473747 0.0141354 -0.00447025 -5.20596e-14 0.00447025 -0.0141354 -0.0473747 -0.063768 -0.0399117 0.00220186 0.00721558 -0.0552887 -0.150666 
data/bohemian_rhapsody.wav 406.194 0.569587 0.41606 9.26601e-08 -316.228 -0.000108463 9.81347e-05 -8.50936e-05 7.22575e-05 -6.13751e-05 5.15957e-05 -4.06824e-05 2.83359e-05 -1.45196e-05 -5.20571e-14 1.45196e-05 -2.83359e-05 4.06824e-05 -5.15957e-05 6.13751e-05 -7.22575e-05 8.50936e-05 -9.81347e-05 0.000108463 
